<?xml version="1.0"?>
<opencv_storage>
<cascade>
  <stageType>BOOST</stageType>
  <featureType>HAAR</featureType>
  <height>24</height>
  <width>48</width>
  <stageParams>
    <boostType>GAB</boostType>
    <minHitRate>9.9500000476837158e-01</minHitRate>
    <maxFalseAlarm>5.0000000000000000e-01</maxFalseAlarm>
    <weightTrimRate>9.4999999999999996e-01</weightTrimRate>
    <maxDepth>1</maxDepth>
    <maxWeakCount>100</maxWeakCount></stageParams>
  <featureParams>
    <maxCatCount>0</maxCatCount>
    <featSize>1</featSize>
    <mode>BASIC</mode></featureParams>
  <stageNum>9</stageNum>
  <stages>
    <!-- stage 0 -->
    <_>
      <maxWeakCount>8</maxWeakCount>
      <stageThreshold>-1.3321267366409302e+00</stageThreshold>
      <weakClassifiers>
        <_>
          <internalNodes>
            0 -1 145 5.0751847447827458e-04</internalNodes>
          <leafValues>
            -1.6846086084842682e-01 -9.0914905071258545e-01</leafValues></_>
        <_>
          <internalNodes>
            0 -1 207 -4.9842396947497036e-06</internalNodes>
          <leafValues>
            -7.5008845329284668e-01 1.5809370577335358e-01</leafValues></_>
        <_>
          <internalNodes>
            0 -1 146 -9.2399539425969124e-04</internalNodes>
          <leafValues>
            -6.7334973812103271e-01 2.8515124320983887e-01</leafValues></_>
        <_>
          <internalNodes>
            0 -1 207 4.7914131755533163e-06</internalNodes>
          <leafValues>
            3.0137199163436890e-01 -5.7589370012283325e-01</leafValues></_>
        <_>
          <internalNodes>
            0 -1 131 3.7566256651189178e-05</internalNodes>
          <leafValues>
            1.7147552967071533e-01 -7.6171612739562988e-01</leafValues></_>
        <_>
          <internalNodes>
            0 -1 131 -1.2467313354136422e-05</internalNodes>
          <leafValues>
            -4.3187138438224792e-01 3.5616743564605713e-01</leafValues></_>
        <_>
          <internalNodes>
            0 -1 37 4.1954399421229027e-06</internalNodes>
          <leafValues>
            2.1589331328868866e-01 -6.3303202390670776e-01</leafValues></_>
        <_>
          <internalNodes>
            0 -1 127 7.5795757584273815e-04</internalNodes>
          <leafValues>
            1.8944530189037323e-01 -7.6012641191482544e-01</leafValues></_></weakClassifiers></_>
    <!-- stage 1 -->
    <_>
      <maxWeakCount>7</maxWeakCount>
      <stageThreshold>-1.3387745618820190e+00</stageThreshold>
      <weakClassifiers>
        <_>
          <internalNodes>
            0 -1 37 -5.1993974921060726e-06</internalNodes>
          <leafValues>
            -7.3338371515274048e-01 -2.4659864604473114e-02</leafValues></_>
        <_>
          <internalNodes>
            0 -1 8 4.8486499508726411e-06</internalNodes>
          <leafValues>
            1.6144800186157227e-01 -6.8529438972473145e-01</leafValues></_>
        <_>
          <internalNodes>
            0 -1 167 8.3855108823627234e-04</internalNodes>
          <leafValues>
            1.5280491113662720e-01 -8.2310098409652710e-01</leafValues></_>
        <_>
          <internalNodes>
            0 -1 205 -9.3201888375915587e-06</internalNodes>
          <leafValues>
            -6.5312451124191284e-01 2.2413331270217896e-01</leafValues></_>
        <_>
          <internalNodes>
            0 -1 204 4.9341542762704194e-06</internalNodes>
          <leafValues>
            2.8563019633293152e-01 -5.6229484081268311e-01</leafValues></_>
        <_>
          <internalNodes>
            0 -1 168 -4.7096179332584143e-04</internalNodes>
          <leafValues>
            -5.6989890336990356e-01 2.6920828223228455e-01</leafValues></_>
        <_>
          <internalNodes>
            0 -1 113 8.6298480164259672e-04</internalNodes>
          <leafValues>
            1.2521536648273468e-01 -8.8069373369216919e-01</leafValues></_></weakClassifiers></_>
    <!-- stage 2 -->
    <_>
      <maxWeakCount>10</maxWeakCount>
      <stageThreshold>-1.4333528280258179e+00</stageThreshold>
      <weakClassifiers>
        <_>
          <internalNodes>
            0 -1 226 -1.1145344615215436e-05</internalNodes>
          <leafValues>
            -8.2789319753646851e-01 -1.8250377476215363e-01</leafValues></_>
        <_>
          <internalNodes>
            0 -1 144 2.9003657982684672e-04</internalNodes>
          <leafValues>
            1.3282692432403564e-01 -7.2611737251281738e-01</leafValues></_>
        <_>
          <internalNodes>
            0 -1 58 7.6071720104664564e-04</internalNodes>
          <leafValues>
            1.7399398982524872e-01 -8.0102241039276123e-01</leafValues></_>
        <_>
          <internalNodes>
            0 -1 71 4.8839701776159927e-06</internalNodes>
          <leafValues>
            1.8298453092575073e-01 -6.4044898748397827e-01</leafValues></_>
        <_>
          <internalNodes>
            0 -1 215 -4.7973576329241041e-06</internalNodes>
          <leafValues>
            -5.9821766614913940e-01 1.8907868862152100e-01</leafValues></_>
        <_>
          <internalNodes>
            0 -1 75 6.7116296850144863e-04</internalNodes>
          <leafValues>
            1.3031764328479767e-01 -7.4271816015243530e-01</leafValues></_>
        <_>
          <internalNodes>
            0 -1 213 -5.0420017032593023e-06</internalNodes>
          <leafValues>
            -5.6144356727600098e-01 1.7637506127357483e-01</leafValues></_>
        <_>
          <internalNodes>
            0 -1 212 9.2562640929827467e-06</internalNodes>
          <leafValues>
            1.9367302954196930e-01 -4.8544529080390930e-01</leafValues></_>
        <_>
          <internalNodes>
            0 -1 172 4.1112896724371240e-05</internalNodes>
          <leafValues>
            1.4355069398880005e-01 -5.9770709276199341e-01</leafValues></_>
        <_>
          <internalNodes>
            0 -1 53 2.3772045969963074e-03</internalNodes>
          <leafValues>
            -1.7549884319305420e-01 6.1151528358459473e-01</leafValues></_></weakClassifiers></_>
    <!-- stage 3 -->
    <_>
      <maxWeakCount>13</maxWeakCount>
      <stageThreshold>-1.5340740680694580e+00</stageThreshold>
      <weakClassifiers>
        <_>
          <internalNodes>
            0 -1 23 -4.6933087105571758e-06</internalNodes>
          <leafValues>
            -8.2160276174545288e-01 -2.3029452562332153e-01</leafValues></_>
        <_>
          <internalNodes>
            0 -1 202 4.8353363126807380e-06</internalNodes>
          <leafValues>
            1.2242942303419113e-01 -6.0791784524917603e-01</leafValues></_>
        <_>
          <internalNodes>
            0 -1 202 -1.1202628229511902e-05</internalNodes>
          <leafValues>
            -3.8613322377204895e-01 2.6652738451957703e-01</leafValues></_>
        <_>
          <internalNodes>
            0 -1 28 4.4323012116365135e-04</internalNodes>
          <leafValues>
            1.3022080063819885e-01 -6.1582142114639282e-01</leafValues></_>
        <_>
          <internalNodes>
            0 -1 29 -7.4793212115764618e-04</internalNodes>
          <leafValues>
            -5.4288685321807861e-01 1.3887201249599457e-01</leafValues></_>
        <_>
          <internalNodes>
            0 -1 132 2.4050786159932613e-03</internalNodes>
          <leafValues>
            -1.6920861601829529e-01 5.3618597984313965e-01</leafValues></_>
        <_>
          <internalNodes>
            0 -1 153 4.0536178858019412e-05</internalNodes>
          <leafValues>
            1.3568159937858582e-01 -6.1416649818420410e-01</leafValues></_>
        <_>
          <internalNodes>
            0 -1 219 -4.5932119974168018e-06</internalNodes>
          <leafValues>
            -5.4181945323944092e-01 1.4019742608070374e-01</leafValues></_>
        <_>
          <internalNodes>
            0 -1 19 -1.7471249448135495e-03</internalNodes>
          <leafValues>
            6.9009953737258911e-01 -1.2350502610206604e-01</leafValues></_>
        <_>
          <internalNodes>
            0 -1 18 1.3264635344967246e-03</internalNodes>
          <leafValues>
            -1.0374634712934494e-01 6.4340120553970337e-01</leafValues></_>
        <_>
          <internalNodes>
            0 -1 86 1.1207914212718606e-03</internalNodes>
          <leafValues>
            1.1576660722494125e-01 -7.5929033756256104e-01</leafValues></_>
        <_>
          <internalNodes>
            0 -1 198 4.4503726530820131e-04</internalNodes>
          <leafValues>
            9.1101370751857758e-02 -6.2970596551895142e-01</leafValues></_>
        <_>
          <internalNodes>
            0 -1 184 -1.7495227511972189e-03</internalNodes>
          <leafValues>
            6.2589001655578613e-01 -1.2213039398193359e-01</leafValues></_></weakClassifiers></_>
    <!-- stage 4 -->
    <_>
      <maxWeakCount>15</maxWeakCount>
      <stageThreshold>-1.2796864509582520e+00</stageThreshold>
      <weakClassifiers>
        <_>
          <internalNodes>
            0 -1 217 4.1884668462444097e-06</internalNodes>
          <leafValues>
            -2.1546961367130280e-01 -7.4512052536010742e-01</leafValues></_>
        <_>
          <internalNodes>
            0 -1 131 4.3607797124423087e-06</internalNodes>
          <leafValues>
            1.0690872371196747e-01 -5.8417266607284546e-01</leafValues></_>
        <_>
          <internalNodes>
            0 -1 4 4.6229824874899350e-06</internalNodes>
          <leafValues>
            1.5541364252567291e-01 -5.3004026412963867e-01</leafValues></_>
        <_>
          <internalNodes>
            0 -1 136 -1.0638028616085649e-03</internalNodes>
          <leafValues>
            4.9721604585647583e-01 -1.5544204413890839e-01</leafValues></_>
        <_>
          <internalNodes>
            0 -1 162 3.9050733903422952e-04</internalNodes>
          <leafValues>
            1.5556770563125610e-01 -5.5519914627075195e-01</leafValues></_>
        <_>
          <internalNodes>
            0 -1 137 1.5532863326370716e-03</internalNodes>
          <leafValues>
            -1.5960501134395599e-01 5.7034206390380859e-01</leafValues></_>
        <_>
          <internalNodes>
            0 -1 63 6.3894083723425865e-05</internalNodes>
          <leafValues>
            1.1898351460695267e-01 -6.7864173650741577e-01</leafValues></_>
        <_>
          <internalNodes>
            0 -1 15 -4.1905282159859780e-06</internalNodes>
          <leafValues>
            -5.4405045509338379e-01 1.0714095085859299e-01</leafValues></_>
        <_>
          <internalNodes>
            0 -1 156 -7.4862013570964336e-04</internalNodes>
          <leafValues>
            4.6554669737815857e-01 -1.4385458827018738e-01</leafValues></_>
        <_>
          <internalNodes>
            0 -1 107 3.3171169343404472e-04</internalNodes>
          <leafValues>
            1.2314420938491821e-01 -5.8715105056762695e-01</leafValues></_>
        <_>
          <internalNodes>
            0 -1 111 -4.0832452941685915e-04</internalNodes>
          <leafValues>
            -4.4208163022994995e-01 1.2776309251785278e-01</leafValues></_>
        <_>
          <internalNodes>
            0 -1 76 5.5984873324632645e-04</internalNodes>
          <leafValues>
            -1.4384943246841431e-01 4.4216653704643250e-01</leafValues></_>
        <_>
          <internalNodes>
            0 -1 66 -7.6481577707454562e-04</internalNodes>
          <leafValues>
            5.0019115209579468e-01 -1.3112054765224457e-01</leafValues></_>
        <_>
          <internalNodes>
            0 -1 221 -4.5193883124738932e-06</internalNodes>
          <leafValues>
            -5.3355795145034790e-01 1.2683144211769104e-01</leafValues></_>
        <_>
          <internalNodes>
            0 -1 211 1.8401519628241658e-03</internalNodes>
          <leafValues>
            6.4547747373580933e-02 -8.7348818778991699e-01</leafValues></_></weakClassifiers></_>
    <!-- stage 5 -->
    <_>
      <maxWeakCount>22</maxWeakCount>
      <stageThreshold>-1.4558737277984619e+00</stageThreshold>
      <weakClassifiers>
        <_>
          <internalNodes>
            0 -1 229 2.3740075994282961e-04</internalNodes>
          <leafValues>
            -4.8458459973335266e-01 7.8561916947364807e-02</leafValues></_>
        <_>
          <internalNodes>
            0 -1 125 1.0232320164504927e-05</internalNodes>
          <leafValues>
            8.9375130832195282e-02 -5.5840831995010376e-01</leafValues></_>
        <_>
          <internalNodes>
            0 -1 129 6.3271413091570139e-04</internalNodes>
          <leafValues>
            6.7098721861839294e-02 -7.3527497053146362e-01</leafValues></_>
        <_>
          <internalNodes>
            0 -1 224 5.2677048370242119e-04</internalNodes>
          <leafValues>
            -9.6226207911968231e-02 5.2969032526016235e-01</leafValues></_>
        <_>
          <internalNodes>
            0 -1 202 6.5035259467549622e-05</internalNodes>
          <leafValues>
            9.2911668121814728e-02 -6.9996517896652222e-01</leafValues></_>
        <_>
          <internalNodes>
            0 -1 83 3.6702218494610861e-05</internalNodes>
          <leafValues>
            1.0105781257152557e-01 -5.2829140424728394e-01</leafValues></_>
        <_>
          <internalNodes>
            0 -1 73 1.8784950952976942e-03</internalNodes>
          <leafValues>
            -1.0002636909484863e-01 5.3988832235336304e-01</leafValues></_>
        <_>
          <internalNodes>
            0 -1 27 3.5175148514099419e-04</internalNodes>
          <leafValues>
            1.0673602670431137e-01 -5.7010406255722046e-01</leafValues></_>
        <_>
          <internalNodes>
            0 -1 103 4.2283802758902311e-04</internalNodes>
          <leafValues>
            -1.2279722839593887e-01 4.5770195126533508e-01</leafValues></_>
        <_>
          <internalNodes>
            0 -1 181 1.0119369253516197e-03</internalNodes>
          <leafValues>
            6.0672003775835037e-02 -7.8275460004806519e-01</leafValues></_>
        <_>
          <internalNodes>
            0 -1 120 1.3816579667036422e-05</internalNodes>
          <leafValues>
            9.2738598585128784e-02 -4.7439366579055786e-01</leafValues></_>
        <_>
          <internalNodes>
            0 -1 174 1.8874443776439875e-04</internalNodes>
          <leafValues>
            -1.1492452025413513e-01 4.3297612667083740e-01</leafValues></_>
        <_>
          <internalNodes>
            0 -1 206 1.4972449280321598e-03</internalNodes>
          <leafValues>
            6.5198078751564026e-02 -8.3910787105560303e-01</leafValues></_>
        <_>
          <internalNodes>
            0 -1 204 -9.1586371127050370e-06</internalNodes>
          <leafValues>
            -5.0822788476943970e-01 7.5643315911293030e-02</leafValues></_>
        <_>
          <internalNodes>
            0 -1 177 -4.4085292029194534e-04</internalNodes>
          <leafValues>
            4.1969498991966248e-01 -1.2114147841930389e-01</leafValues></_>
        <_>
          <internalNodes>
            0 -1 147 5.3151685278862715e-04</internalNodes>
          <leafValues>
            8.7070167064666748e-02 -6.7271107435226440e-01</leafValues></_>
        <_>
          <internalNodes>
            0 -1 170 3.2786041265353560e-04</internalNodes>
          <leafValues>
            -1.4774864912033081e-01 4.1370734572410583e-01</leafValues></_>
        <_>
          <internalNodes>
            0 -1 150 -4.3914455454796553e-04</internalNodes>
          <leafValues>
            -4.9135795235633850e-01 1.0015686601400375e-01</leafValues></_>
        <_>
          <internalNodes>
            0 -1 155 1.0134999174624681e-03</internalNodes>
          <leafValues>
            -9.0789750218391418e-02 4.9953427910804749e-01</leafValues></_>
        <_>
          <internalNodes>
            0 -1 0 5.1059214456472546e-06</internalNodes>
          <leafValues>
            1.0694450139999390e-01 -4.5053601264953613e-01</leafValues></_>
        <_>
          <internalNodes>
            0 -1 139 -2.5850934907793999e-03</internalNodes>
          <leafValues>
            5.5696862936019897e-01 -9.0282887220382690e-02</leafValues></_>
        <_>
          <internalNodes>
            0 -1 61 2.0142909488640726e-04</internalNodes>
          <leafValues>
            8.1960782408714294e-02 -6.0180324316024780e-01</leafValues></_></weakClassifiers></_>
    <!-- stage 6 -->
    <_>
      <maxWeakCount>29</maxWeakCount>
      <stageThreshold>-1.1883776187896729e+00</stageThreshold>
      <weakClassifiers>
        <_>
          <internalNodes>
            0 -1 21 3.7671045865863562e-03</internalNodes>
          <leafValues>
            -5.0146055221557617e-01 6.7264571785926819e-02</leafValues></_>
        <_>
          <internalNodes>
            0 -1 1 2.1067748311907053e-03</internalNodes>
          <leafValues>
            1.5068517997860909e-02 -8.6298167705535889e-01</leafValues></_>
        <_>
          <internalNodes>
            0 -1 12 3.0060842982493341e-04</internalNodes>
          <leafValues>
            -9.5081835985183716e-02 4.8685511946678162e-01</leafValues></_>
        <_>
          <internalNodes>
            0 -1 1 -1.8816466908901930e-03</internalNodes>
          <leafValues>
            -7.9517358541488647e-01 5.5557232350111008e-02</leafValues></_>
        <_>
          <internalNodes>
            0 -1 10 -9.0476241894066334e-04</internalNodes>
          <leafValues>
            4.0740734338760376e-01 -1.1269526183605194e-01</leafValues></_>
        <_>
          <internalNodes>
            0 -1 161 4.5913270696473774e-06</internalNodes>
          <leafValues>
            8.5421785712242126e-02 -4.6488350629806519e-01</leafValues></_>
        <_>
          <internalNodes>
            0 -1 95 1.4253315748646855e-03</internalNodes>
          <leafValues>
            -1.1634317040443420e-01 3.9932590723037720e-01</leafValues></_>
        <_>
          <internalNodes>
            0 -1 49 1.0697259567677975e-03</internalNodes>
          <leafValues>
            9.5235712826251984e-02 -6.2449580430984497e-01</leafValues></_>
        <_>
          <internalNodes>
            0 -1 94 -6.6837633494287729e-04</internalNodes>
          <leafValues>
            3.9769512414932251e-01 -1.2450238317251205e-01</leafValues></_>
        <_>
          <internalNodes>
            0 -1 16 4.5772912926622666e-06</internalNodes>
          <leafValues>
            1.0699240118265152e-01 -4.6535164117813110e-01</leafValues></_>
        <_>
          <internalNodes>
            0 -1 148 2.7933582896366715e-04</internalNodes>
          <leafValues>
            5.9412296861410141e-02 -5.5542212724685669e-01</leafValues></_>
        <_>
          <internalNodes>
            0 -1 54 4.0899740997701883e-04</internalNodes>
          <leafValues>
            -1.0899480432271957e-01 4.2740139365196228e-01</leafValues></_>
        <_>
          <internalNodes>
            0 -1 119 -1.7703245976008475e-04</internalNodes>
          <leafValues>
            -5.8814150094985962e-01 6.6143997013568878e-02</leafValues></_>
        <_>
          <internalNodes>
            0 -1 183 4.9212964950129390e-04</internalNodes>
          <leafValues>
            -9.5243498682975769e-02 4.2119753360748291e-01</leafValues></_>
        <_>
          <internalNodes>
            0 -1 114 2.4969482910819352e-04</internalNodes>
          <leafValues>
            6.5138272941112518e-02 -5.5372238159179688e-01</leafValues></_>
        <_>
          <internalNodes>
            0 -1 182 -2.2374422405846417e-04</internalNodes>
          <leafValues>
            3.8064092397689819e-01 -1.1098179966211319e-01</leafValues></_>
        <_>
          <internalNodes>
            0 -1 115 -9.6770862000994384e-05</internalNodes>
          <leafValues>
            -4.6217992901802063e-01 9.5097184181213379e-02</leafValues></_>
        <_>
          <internalNodes>
            0 -1 104 2.9960958636365831e-04</internalNodes>
          <leafValues>
            -9.0006105601787567e-02 4.2231744527816772e-01</leafValues></_>
        <_>
          <internalNodes>
            0 -1 189 1.6640749527141452e-03</internalNodes>
          <leafValues>
            5.5451836436986923e-02 -7.8703105449676514e-01</leafValues></_>
        <_>
          <internalNodes>
            0 -1 105 -2.2557265765499324e-04</internalNodes>
          <leafValues>
            4.8563072085380554e-01 -8.5186384618282318e-02</leafValues></_>
        <_>
          <internalNodes>
            0 -1 197 2.7373549528419971e-04</internalNodes>
          <leafValues>
            7.5654208660125732e-02 -5.4997897148132324e-01</leafValues></_>
        <_>
          <internalNodes>
            0 -1 37 4.6399691200349480e-06</internalNodes>
          <leafValues>
            7.8068643808364868e-02 -4.7275793552398682e-01</leafValues></_>
        <_>
          <internalNodes>
            0 -1 173 4.9155525630339980e-04</internalNodes>
          <leafValues>
            -1.1390759050846100e-01 2.7014493942260742e-01</leafValues></_>
        <_>
          <internalNodes>
            0 -1 196 -1.2750813039019704e-03</internalNodes>
          <leafValues>
            -7.1365338563919067e-01 4.0049459785223007e-02</leafValues></_>
        <_>
          <internalNodes>
            0 -1 62 9.4458664534613490e-06</internalNodes>
          <leafValues>
            7.1125388145446777e-02 -4.3853685259819031e-01</leafValues></_>
        <_>
          <internalNodes>
            0 -1 176 1.6662364359945059e-03</internalNodes>
          <leafValues>
            -7.1691676974296570e-02 4.6294310688972473e-01</leafValues></_>
        <_>
          <internalNodes>
            0 -1 72 3.6635634023696184e-04</internalNodes>
          <leafValues>
            4.8152893781661987e-02 -6.8975853919982910e-01</leafValues></_>
        <_>
          <internalNodes>
            0 -1 69 1.2466241605579853e-03</internalNodes>
          <leafValues>
            -7.3099486529827118e-02 4.4798091053962708e-01</leafValues></_>
        <_>
          <internalNodes>
            0 -1 74 -1.4008328435011208e-04</internalNodes>
          <leafValues>
            -4.9708783626556396e-01 7.0591159164905548e-02</leafValues></_></weakClassifiers></_>
    <!-- stage 7 -->
    <_>
      <maxWeakCount>40</maxWeakCount>
      <stageThreshold>-1.0641149282455444e+00</stageThreshold>
      <weakClassifiers>
        <_>
          <internalNodes>
            0 -1 48 4.1239935671910644e-04</internalNodes>
          <leafValues>
            -5.1299327611923218e-01 1.5639810264110565e-01</leafValues></_>
        <_>
          <internalNodes>
            0 -1 44 -2.6671675732359290e-04</internalNodes>
          <leafValues>
            4.1168794035911560e-01 -1.9001595675945282e-01</leafValues></_>
        <_>
          <internalNodes>
            0 -1 159 4.5447016600519419e-04</internalNodes>
          <leafValues>
            -1.1651273071765900e-01 3.3831426501274109e-01</leafValues></_>
        <_>
          <internalNodes>
            0 -1 134 1.7211012309417129e-03</internalNodes>
          <leafValues>
            4.7699254006147385e-02 -8.0898159742355347e-01</leafValues></_>
        <_>
          <internalNodes>
            0 -1 122 -3.3971834927797318e-03</internalNodes>
          <leafValues>
            4.2311814427375793e-01 -7.9256236553192139e-02</leafValues></_>
        <_>
          <internalNodes>
            0 -1 13 -4.5351957851380575e-06</internalNodes>
          <leafValues>
            -4.7506260871887207e-01 7.9317204654216766e-02</leafValues></_>
        <_>
          <internalNodes>
            0 -1 133 2.0994567312300205e-03</internalNodes>
          <leafValues>
            -9.5357976853847504e-02 4.6308660507202148e-01</leafValues></_>
        <_>
          <internalNodes>
            0 -1 97 8.8194437557831407e-04</internalNodes>
          <leafValues>
            7.9608678817749023e-02 -5.6354737281799316e-01</leafValues></_>
        <_>
          <internalNodes>
            0 -1 91 3.6360747180879116e-03</internalNodes>
          <leafValues>
            -7.7408812940120697e-02 4.6437576413154602e-01</leafValues></_>
        <_>
          <internalNodes>
            0 -1 185 5.5202958174049854e-04</internalNodes>
          <leafValues>
            5.2370388060808182e-02 -7.5296676158905029e-01</leafValues></_>
        <_>
          <internalNodes>
            0 -1 93 -1.0416747536510229e-03</internalNodes>
          <leafValues>
            3.9472091197967529e-01 -9.9085800349712372e-02</leafValues></_>
        <_>
          <internalNodes>
            0 -1 166 1.7101001867558807e-04</internalNodes>
          <leafValues>
            7.4422478675842285e-02 -4.7429463267326355e-01</leafValues></_>
        <_>
          <internalNodes>
            0 -1 109 6.5583805553615093e-04</internalNodes>
          <leafValues>
            6.5027952194213867e-02 -6.1512076854705811e-01</leafValues></_>
        <_>
          <internalNodes>
            0 -1 3 2.8538659680634737e-03</internalNodes>
          <leafValues>
            -1.0542546957731247e-01 3.5717222094535828e-01</leafValues></_>
        <_>
          <internalNodes>
            0 -1 216 -4.1586499719414860e-06</internalNodes>
          <leafValues>
            -5.6816333532333374e-01 7.0208206772804260e-02</leafValues></_>
        <_>
          <internalNodes>
            0 -1 60 -7.4517610482871532e-04</internalNodes>
          <leafValues>
            -5.1587271690368652e-01 7.1025207638740540e-02</leafValues></_>
        <_>
          <internalNodes>
            0 -1 193 2.9271203675307333e-04</internalNodes>
          <leafValues>
            -1.2929709255695343e-01 3.3195969462394714e-01</leafValues></_>
        <_>
          <internalNodes>
            0 -1 209 -4.6282648327178322e-06</internalNodes>
          <leafValues>
            -4.7319915890693665e-01 7.7641427516937256e-02</leafValues></_>
        <_>
          <internalNodes>
            0 -1 164 7.4283964931964874e-04</internalNodes>
          <leafValues>
            -9.6494898200035095e-02 3.5197755694389343e-01</leafValues></_>
        <_>
          <internalNodes>
            0 -1 151 -9.6235540695488453e-05</internalNodes>
          <leafValues>
            -5.2634167671203613e-01 6.7056007683277130e-02</leafValues></_>
        <_>
          <internalNodes>
            0 -1 175 -3.9189335075207055e-04</internalNodes>
          <leafValues>
            5.3360903263092041e-01 -6.2785044312477112e-02</leafValues></_>
        <_>
          <internalNodes>
            0 -1 116 -1.0714273666962981e-03</internalNodes>
          <leafValues>
            -6.3609552383422852e-01 5.1475632935762405e-02</leafValues></_>
        <_>
          <internalNodes>
            0 -1 98 9.5113250426948071e-04</internalNodes>
          <leafValues>
            -8.5786998271942139e-02 3.8347318768501282e-01</leafValues></_>
        <_>
          <internalNodes>
            0 -1 26 4.3389150050643366e-06</internalNodes>
          <leafValues>
            6.7455358803272247e-02 -4.9506616592407227e-01</leafValues></_>
        <_>
          <internalNodes>
            0 -1 87 -3.3242669887840748e-03</internalNodes>
          <leafValues>
            3.9937174320220947e-01 -7.5402908027172089e-02</leafValues></_>
        <_>
          <internalNodes>
            0 -1 143 9.8573815193958580e-05</internalNodes>
          <leafValues>
            5.3021330386400223e-02 -6.8972688913345337e-01</leafValues></_>
        <_>
          <internalNodes>
            0 -1 225 4.1558432712918147e-06</internalNodes>
          <leafValues>
            5.9286769479513168e-02 -4.3196356296539307e-01</leafValues></_>
        <_>
          <internalNodes>
            0 -1 180 9.1593312390614301e-05</internalNodes>
          <leafValues>
            -8.1615537405014038e-02 3.7564876675605774e-01</leafValues></_>
        <_>
          <internalNodes>
            0 -1 82 -6.0233091062400490e-05</internalNodes>
          <leafValues>
            -4.6933239698410034e-01 6.1975982040166855e-02</leafValues></_>
        <_>
          <internalNodes>
            0 -1 55 2.4753960315138102e-04</internalNodes>
          <leafValues>
            -8.2038201391696930e-02 3.8823971152305603e-01</leafValues></_>
        <_>
          <internalNodes>
            0 -1 78 1.5614619769621640e-05</internalNodes>
          <leafValues>
            6.4752429723739624e-02 -4.7649660706520081e-01</leafValues></_>
        <_>
          <internalNodes>
            0 -1 55 -2.1398131502792239e-04</internalNodes>
          <leafValues>
            4.1873782873153687e-01 -7.0743873715400696e-02</leafValues></_>
        <_>
          <internalNodes>
            0 -1 36 -5.4974440718069673e-04</internalNodes>
          <leafValues>
            -7.0011353492736816e-01 4.7102913260459900e-02</leafValues></_>
        <_>
          <internalNodes>
            0 -1 195 5.6435350415995345e-05</internalNodes>
          <leafValues>
            3.6081526428461075e-02 -6.0486251115798950e-01</leafValues></_>
        <_>
          <internalNodes>
            0 -1 42 5.0941380322910845e-05</internalNodes>
          <leafValues>
            -7.5729973614215851e-02 4.1831400990486145e-01</leafValues></_>
        <_>
          <internalNodes>
            0 -1 30 9.6166244475170970e-05</internalNodes>
          <leafValues>
            4.7036085277795792e-02 -5.9804946184158325e-01</leafValues></_>
        <_>
          <internalNodes>
            0 -1 90 -4.4302709284238517e-04</internalNodes>
          <leafValues>
            4.5011994242668152e-01 -6.2318790704011917e-02</leafValues></_>
        <_>
          <internalNodes>
            0 -1 117 9.0796689619310200e-05</internalNodes>
          <leafValues>
            5.0695717334747314e-02 -5.2050828933715820e-01</leafValues></_>
        <_>
          <internalNodes>
            0 -1 228 -4.2770911932166200e-06</internalNodes>
          <leafValues>
            -4.3472525477409363e-01 5.4358895868062973e-02</leafValues></_>
        <_>
          <internalNodes>
            0 -1 160 -1.9310796051286161e-04</internalNodes>
          <leafValues>
            3.8131085038185120e-01 -8.2116372883319855e-02</leafValues></_></weakClassifiers></_>
    <!-- stage 8 -->
    <_>
      <maxWeakCount>100</maxWeakCount>
      <stageThreshold>-1.1534887552261353e+00</stageThreshold>
      <weakClassifiers>
        <_>
          <internalNodes>
            0 -1 9 3.9220522157847881e-03</internalNodes>
          <leafValues>
            -6.1679643392562866e-01 1.5527065098285675e-01</leafValues></_>
        <_>
          <internalNodes>
            0 -1 40 -1.0198258678428829e-04</internalNodes>
          <leafValues>
            4.8378503322601318e-01 -2.6134312152862549e-01</leafValues></_>
        <_>
          <internalNodes>
            0 -1 101 1.4616579574067146e-04</internalNodes>
          <leafValues>
            -1.0444013774394989e-01 5.6720083951950073e-01</leafValues></_>
        <_>
          <internalNodes>
            0 -1 135 7.5591367203742266e-04</internalNodes>
          <leafValues>
            -1.0132376849651337e-01 4.3616938591003418e-01</leafValues></_>
        <_>
          <internalNodes>
            0 -1 85 3.2646328327246010e-04</internalNodes>
          <leafValues>
            -7.6359972357749939e-02 3.9346522092819214e-01</leafValues></_>
        <_>
          <internalNodes>
            0 -1 11 4.6079749154159799e-06</internalNodes>
          <leafValues>
            7.1278050541877747e-02 -4.7998702526092529e-01</leafValues></_>
        <_>
          <internalNodes>
            0 -1 25 1.6046310774981976e-03</internalNodes>
          <leafValues>
            -6.7244082689285278e-02 4.5804670453071594e-01</leafValues></_>
        <_>
          <internalNodes>
            0 -1 84 1.4359077904373407e-03</internalNodes>
          <leafValues>
            4.4960737228393555e-02 -7.2678595781326294e-01</leafValues></_>
        <_>
          <internalNodes>
            0 -1 200 4.4785457430407405e-04</internalNodes>
          <leafValues>
            4.0293879806995392e-02 -6.1204367876052856e-01</leafValues></_>
        <_>
          <internalNodes>
            0 -1 186 8.0003327457234263e-04</internalNodes>
          <leafValues>
            -7.0392988622188568e-02 4.2941552400588989e-01</leafValues></_>
        <_>
          <internalNodes>
            0 -1 187 -1.1045143473893404e-03</internalNodes>
          <leafValues>
            4.2367789149284363e-01 -8.3805501461029053e-02</leafValues></_>
        <_>
          <internalNodes>
            0 -1 201 -1.4069539611227810e-04</internalNodes>
          <leafValues>
            -5.6007778644561768e-01 7.9879425466060638e-02</leafValues></_>
        <_>
          <internalNodes>
            0 -1 6 -2.4658595066284761e-05</internalNodes>
          <leafValues>
            -5.3404641151428223e-01 5.7242725044488907e-02</leafValues></_>
        <_>
          <internalNodes>
            0 -1 7 -1.6853166744112968e-04</internalNodes>
          <leafValues>
            4.8706564307212830e-01 -6.0725700110197067e-02</leafValues></_>
        <_>
          <internalNodes>
            0 -1 126 2.0080360991414636e-04</internalNodes>
          <leafValues>
            5.5396426469087601e-02 -5.1926267147064209e-01</leafValues></_>
        <_>
          <internalNodes>
            0 -1 20 -1.9166730344295502e-03</internalNodes>
          <leafValues>
            5.0800359249114990e-01 -5.3856901824474335e-02</leafValues></_>
        <_>
          <internalNodes>
            0 -1 57 2.3193766537588090e-04</internalNodes>
          <leafValues>
            5.3008694201707840e-02 -5.4440146684646606e-01</leafValues></_>
        <_>
          <internalNodes>
            0 -1 41 4.8745353706181049e-04</internalNodes>
          <leafValues>
            -6.2016423791646957e-02 5.0455254316329956e-01</leafValues></_>
        <_>
          <internalNodes>
            0 -1 22 4.0981626625580247e-06</internalNodes>
          <leafValues>
            7.0098690688610077e-02 -5.2061700820922852e-01</leafValues></_>
        <_>
          <internalNodes>
            0 -1 79 -1.3961548684164882e-03</internalNodes>
          <leafValues>
            3.9873835444450378e-01 -6.6988691687583923e-02</leafValues></_>
        <_>
          <internalNodes>
            0 -1 81 3.1788559863343835e-04</internalNodes>
          <leafValues>
            4.5305449515581131e-02 -7.2241526842117310e-01</leafValues></_>
        <_>
          <internalNodes>
            0 -1 123 1.4745797961950302e-03</internalNodes>
          <leafValues>
            -5.5689528584480286e-02 5.0236719846725464e-01</leafValues></_>
        <_>
          <internalNodes>
            0 -1 14 5.6525018408137839e-06</internalNodes>
          <leafValues>
            4.9310520291328430e-02 -5.1128143072128296e-01</leafValues></_>
        <_>
          <internalNodes>
            0 -1 149 1.0743103921413422e-03</internalNodes>
          <leafValues>
            -5.8214571326971054e-02 3.8728079199790955e-01</leafValues></_>
        <_>
          <internalNodes>
            0 -1 152 1.3599297381006181e-04</internalNodes>
          <leafValues>
            4.5216329395771027e-02 -5.8168429136276245e-01</leafValues></_>
        <_>
          <internalNodes>
            0 -1 70 2.7769184671342373e-03</internalNodes>
          <leafValues>
            -5.2886828780174255e-02 4.0538126230239868e-01</leafValues></_>
        <_>
          <internalNodes>
            0 -1 80 -3.1383853638544679e-04</internalNodes>
          <leafValues>
            -6.7438393831253052e-01 3.0677223578095436e-02</leafValues></_>
        <_>
          <internalNodes>
            0 -1 39 4.8767175758257508e-04</internalNodes>
          <leafValues>
            -5.5428061634302139e-02 4.3698936700820923e-01</leafValues></_>
        <_>
          <internalNodes>
            0 -1 106 2.4018831027206033e-05</internalNodes>
          <leafValues>
            4.5413304120302200e-02 -6.0400861501693726e-01</leafValues></_>
        <_>
          <internalNodes>
            0 -1 33 -1.8720301159191877e-04</internalNodes>
          <leafValues>
            -6.3719308376312256e-01 3.6774553358554840e-02</leafValues></_>
        <_>
          <internalNodes>
            0 -1 50 3.7127084215171635e-04</internalNodes>
          <leafValues>
            -6.0800231993198395e-02 4.1795873641967773e-01</leafValues></_>
        <_>
          <internalNodes>
            0 -1 31 1.1781287612393498e-03</internalNodes>
          <leafValues>
            2.2635437548160553e-02 -8.3913534879684448e-01</leafValues></_>
        <_>
          <internalNodes>
            0 -1 43 5.4783193627372384e-04</internalNodes>
          <leafValues>
            -4.8989921808242798e-02 4.9248269200325012e-01</leafValues></_>
        <_>
          <internalNodes>
            0 -1 227 3.5579381801653653e-05</internalNodes>
          <leafValues>
            4.4230349361896515e-02 -5.3776395320892334e-01</leafValues></_>
        <_>
          <internalNodes>
            0 -1 112 2.1309222211129963e-04</internalNodes>
          <leafValues>
            4.0412008762359619e-02 -5.4487121105194092e-01</leafValues></_>
        <_>
          <internalNodes>
            0 -1 194 -3.1893397681415081e-04</internalNodes>
          <leafValues>
            4.2838421463966370e-01 -5.5705640465021133e-02</leafValues></_>
        <_>
          <internalNodes>
            0 -1 208 1.0308109267498367e-05</internalNodes>
          <leafValues>
            3.5374041646718979e-02 -5.8106338977813721e-01</leafValues></_>
        <_>
          <internalNodes>
            0 -1 124 1.7145081656053662e-03</internalNodes>
          <leafValues>
            -5.0167575478553772e-02 4.0261974930763245e-01</leafValues></_>
        <_>
          <internalNodes>
            0 -1 77 1.9197817891836166e-04</internalNodes>
          <leafValues>
            3.5064831376075745e-02 -5.8296388387680054e-01</leafValues></_>
        <_>
          <internalNodes>
            0 -1 141 2.8480082983151078e-04</internalNodes>
          <leafValues>
            -4.0287923067808151e-02 5.0694012641906738e-01</leafValues></_>
        <_>
          <internalNodes>
            0 -1 111 -9.8509062081575394e-04</internalNodes>
          <leafValues>
            -5.8935922384262085e-01 3.8246840238571167e-02</leafValues></_>
        <_>
          <internalNodes>
            0 -1 223 2.2215499484445900e-05</internalNodes>
          <leafValues>
            4.3312046676874161e-02 -4.6365606784820557e-01</leafValues></_>
        <_>
          <internalNodes>
            0 -1 192 9.6586663858033717e-05</internalNodes>
          <leafValues>
            -5.8625642210245132e-02 4.0748578310012817e-01</leafValues></_>
        <_>
          <internalNodes>
            0 -1 223 -1.1330739653203636e-05</internalNodes>
          <leafValues>
            -4.8560789227485657e-01 3.6534354090690613e-02</leafValues></_>
        <_>
          <internalNodes>
            0 -1 52 8.3172963932156563e-03</internalNodes>
          <leafValues>
            -2.9427917674183846e-02 7.4807459115982056e-01</leafValues></_>
        <_>
          <internalNodes>
            0 -1 140 9.3248393386602402e-04</internalNodes>
          <leafValues>
            3.2748006284236908e-02 -5.8452922105789185e-01</leafValues></_>
        <_>
          <internalNodes>
            0 -1 171 -3.3864256693050265e-04</internalNodes>
          <leafValues>
            3.6668914556503296e-01 -5.9826966375112534e-02</leafValues></_>
        <_>
          <internalNodes>
            0 -1 218 1.2603746727108955e-03</internalNodes>
          <leafValues>
            1.7183074727654457e-02 -8.4426105022430420e-01</leafValues></_>
        <_>
          <internalNodes>
            0 -1 17 9.2680211309925653e-06</internalNodes>
          <leafValues>
            3.5446193069219589e-02 -4.8700404167175293e-01</leafValues></_>
        <_>
          <internalNodes>
            0 -1 178 3.5698752617463470e-04</internalNodes>
          <leafValues>
            -4.8143040388822556e-02 4.2714259028434753e-01</leafValues></_>
        <_>
          <internalNodes>
            0 -1 47 -8.0957514001056552e-05</internalNodes>
          <leafValues>
            -3.0857378244400024e-01 6.3769184052944183e-02</leafValues></_>
        <_>
          <internalNodes>
            0 -1 142 -4.9526650400366634e-05</internalNodes>
          <leafValues>
            4.9373519420623779e-01 -2.9857603833079338e-02</leafValues></_>
        <_>
          <internalNodes>
            0 -1 35 -2.1915251272730529e-04</internalNodes>
          <leafValues>
            -6.1293417215347290e-01 2.5238098576664925e-02</leafValues></_>
        <_>
          <internalNodes>
            0 -1 45 2.0920111273881048e-04</internalNodes>
          <leafValues>
            -3.0595872551202774e-02 5.5107110738754272e-01</leafValues></_>
        <_>
          <internalNodes>
            0 -1 130 -1.8738681683316827e-04</internalNodes>
          <leafValues>
            -6.1051994562149048e-01 2.8293903917074203e-02</leafValues></_>
        <_>
          <internalNodes>
            0 -1 96 1.6210435424000025e-03</internalNodes>
          <leafValues>
            -1.8329372629523277e-02 8.7198019027709961e-01</leafValues></_>
        <_>
          <internalNodes>
            0 -1 190 5.7683844352141023e-04</internalNodes>
          <leafValues>
            2.7047760784626007e-02 -5.9717369079589844e-01</leafValues></_>
        <_>
          <internalNodes>
            0 -1 179 2.5404896587133408e-04</internalNodes>
          <leafValues>
            -4.5504096895456314e-02 3.6038386821746826e-01</leafValues></_>
        <_>
          <internalNodes>
            0 -1 210 -1.0864621799555607e-05</internalNodes>
          <leafValues>
            -6.4206361770629883e-01 2.3814419284462929e-02</leafValues></_>
        <_>
          <internalNodes>
            0 -1 163 -4.1924236575141549e-04</internalNodes>
          <leafValues>
            5.7652360200881958e-01 -2.3174121975898743e-02</leafValues></_>
        <_>
          <internalNodes>
            0 -1 128 1.6509332635905594e-04</internalNodes>
          <leafValues>
            3.0567191541194916e-02 -4.9371245503425598e-01</leafValues></_>
        <_>
          <internalNodes>
            0 -1 102 2.2661471739411354e-03</internalNodes>
          <leafValues>
            -2.5516171008348465e-02 5.3184378147125244e-01</leafValues></_>
        <_>
          <internalNodes>
            0 -1 63 2.0176614270894788e-05</internalNodes>
          <leafValues>
            2.3535365238785744e-02 -5.8922493457794189e-01</leafValues></_>
        <_>
          <internalNodes>
            0 -1 188 -1.7045581480488181e-03</internalNodes>
          <leafValues>
            -8.8565784692764282e-01 1.8783960491418839e-02</leafValues></_>
        <_>
          <internalNodes>
            0 -1 121 -4.1149929165840149e-02</internalNodes>
          <leafValues>
            4.9802827835083008e-01 -3.4160848706960678e-02</leafValues></_>
        <_>
          <internalNodes>
            0 -1 64 4.0494315326213837e-03</internalNodes>
          <leafValues>
            1.0780116543173790e-02 -9.6169257164001465e-01</leafValues></_>
        <_>
          <internalNodes>
            0 -1 165 9.1042625717818737e-04</internalNodes>
          <leafValues>
            1.3946343213319778e-02 -8.1458061933517456e-01</leafValues></_>
        <_>
          <internalNodes>
            0 -1 158 -1.8810944166034460e-03</internalNodes>
          <leafValues>
            5.2509760856628418e-01 -2.8779257088899612e-02</leafValues></_>
        <_>
          <internalNodes>
            0 -1 118 1.9836569845210761e-04</internalNodes>
          <leafValues>
            2.2187680006027222e-02 -6.3358461856842041e-01</leafValues></_>
        <_>
          <internalNodes>
            0 -1 138 -6.7477975971996784e-04</internalNodes>
          <leafValues>
            4.4983157515525818e-01 -2.8529163450002670e-02</leafValues></_>
        <_>
          <internalNodes>
            0 -1 220 1.5869733033468947e-05</internalNodes>
          <leafValues>
            2.7301935479044914e-02 -5.4609459638595581e-01</leafValues></_>
        <_>
          <internalNodes>
            0 -1 38 3.7589762359857559e-03</internalNodes>
          <leafValues>
            -1.0084536857903004e-02 9.0496146678924561e-01</leafValues></_>
        <_>
          <internalNodes>
            0 -1 110 2.0459563529584557e-04</internalNodes>
          <leafValues>
            2.2672845050692558e-02 -6.0656815767288208e-01</leafValues></_>
        <_>
          <internalNodes>
            0 -1 46 2.5951402494683862e-04</internalNodes>
          <leafValues>
            -3.3665779978036880e-02 4.3888688087463379e-01</leafValues></_>
        <_>
          <internalNodes>
            0 -1 222 4.8978649829223286e-06</internalNodes>
          <leafValues>
            1.6736567020416260e-02 -5.4589676856994629e-01</leafValues></_>
        <_>
          <internalNodes>
            0 -1 68 5.7934303185902536e-05</internalNodes>
          <leafValues>
            -3.1941667199134827e-02 3.3797609806060791e-01</leafValues></_>
        <_>
          <internalNodes>
            0 -1 108 -1.5670334687456489e-04</internalNodes>
          <leafValues>
            -4.4659250974655151e-01 3.2073501497507095e-02</leafValues></_>
        <_>
          <internalNodes>
            0 -1 157 2.9301736503839493e-04</internalNodes>
          <leafValues>
            -2.4850944057106972e-02 4.2280137538909912e-01</leafValues></_>
        <_>
          <internalNodes>
            0 -1 5 2.3945358407218009e-05</internalNodes>
          <leafValues>
            2.2769011557102203e-02 -5.1199513673782349e-01</leafValues></_>
        <_>
          <internalNodes>
            0 -1 92 1.2424215674400330e-04</internalNodes>
          <leafValues>
            -2.6403050869703293e-02 4.4293379783630371e-01</leafValues></_>
        <_>
          <internalNodes>
            0 -1 89 -1.4693829871248454e-04</internalNodes>
          <leafValues>
            -6.6162455081939697e-01 1.7813274636864662e-02</leafValues></_>
        <_>
          <internalNodes>
            0 -1 2 -2.1310897171497345e-01</internalNodes>
          <leafValues>
            -7.7150624990463257e-01 1.8449511379003525e-02</leafValues></_>
        <_>
          <internalNodes>
            0 -1 154 2.7319567743688822e-04</internalNodes>
          <leafValues>
            -2.0387137308716774e-02 6.4494323730468750e-01</leafValues></_>
        <_>
          <internalNodes>
            0 -1 88 6.6477870859671384e-05</internalNodes>
          <leafValues>
            2.2004276514053345e-02 -4.3867316842079163e-01</leafValues></_>
        <_>
          <internalNodes>
            0 -1 99 -1.6488842084072530e-04</internalNodes>
          <leafValues>
            4.9841073155403137e-01 -2.1590679883956909e-02</leafValues></_>
        <_>
          <internalNodes>
            0 -1 214 4.9604191190155689e-06</internalNodes>
          <leafValues>
            1.5781173482537270e-02 -6.1105281114578247e-01</leafValues></_>
        <_>
          <internalNodes>
            0 -1 100 4.8007490113377571e-04</internalNodes>
          <leafValues>
            -2.0311847329139709e-02 5.6693971157073975e-01</leafValues></_>
        <_>
          <internalNodes>
            0 -1 34 8.7869673734530807e-05</internalNodes>
          <leafValues>
            1.9228423014283180e-02 -5.1967859268188477e-01</leafValues></_>
        <_>
          <internalNodes>
            0 -1 56 -3.6936122342012823e-05</internalNodes>
          <leafValues>
            5.2994847297668457e-01 -1.3642368838191032e-02</leafValues></_>
        <_>
          <internalNodes>
            0 -1 199 3.8052479794714600e-05</internalNodes>
          <leafValues>
            1.5767782926559448e-02 -5.8556985855102539e-01</leafValues></_>
        <_>
          <internalNodes>
            0 -1 169 -1.2675894424319267e-02</internalNodes>
          <leafValues>
            7.4659007787704468e-01 -1.0149729438126087e-02</leafValues></_>
        <_>
          <internalNodes>
            0 -1 131 8.4177954704500735e-05</internalNodes>
          <leafValues>
            1.0735962539911270e-02 -8.4854358434677124e-01</leafValues></_>
        <_>
          <internalNodes>
            0 -1 203 -1.0662176646292210e-04</internalNodes>
          <leafValues>
            4.3325161933898926e-01 -2.1643858402967453e-02</leafValues></_>
        <_>
          <internalNodes>
            0 -1 24 4.4206740312802140e-06</internalNodes>
          <leafValues>
            1.5090811066329479e-02 -5.6950521469116211e-01</leafValues></_>
        <_>
          <internalNodes>
            0 -1 191 -2.9016891494393349e-03</internalNodes>
          <leafValues>
            -7.2174733877182007e-01 1.6266103833913803e-02</leafValues></_>
        <_>
          <internalNodes>
            0 -1 32 -9.7719177603721619e-02</internalNodes>
          <leafValues>
            4.2887434363365173e-01 -2.3360872641205788e-02</leafValues></_>
        <_>
          <internalNodes>
            0 -1 67 -4.0614731609821320e-02</internalNodes>
          <leafValues>
            -4.7441512346267700e-01 2.0345132797956467e-02</leafValues></_>
        <_>
          <internalNodes>
            0 -1 65 1.3395927380770445e-03</internalNodes>
          <leafValues>
            -1.5772664919495583e-02 4.8050123453140259e-01</leafValues></_>
        <_>
          <internalNodes>
            0 -1 59 1.3198857777751982e-04</internalNodes>
          <leafValues>
            1.3043069280683994e-02 -6.3854932785034180e-01</leafValues></_>
        <_>
          <internalNodes>
            0 -1 51 1.5004602028056979e-04</internalNodes>
          <leafValues>
            -1.5836186707019806e-02 4.3047782778739929e-01</leafValues></_></weakClassifiers></_></stages>
  <features>
    <_>
      <rects>
        <_>
          0 0 2 2 -1.</_>
        <_>
          1 0 1 2 2.</_></rects>
      <tilted>0</tilted></_>
    <_>
      <rects>
        <_>
          0 0 2 24 -1.</_>
        <_>
          0 0 1 12 2.</_>
        <_>
          1 12 1 12 2.</_></rects>
      <tilted>0</tilted></_>
    <_>
      <rects>
        <_>
          0 0 48 9 -1.</_>
        <_>
          0 3 48 3 3.</_></rects>
      <tilted>0</tilted></_>
    <_>
      <rects>
        <_>
          0 2 12 4 -1.</_>
        <_>
          6 2 6 4 2.</_></rects>
      <tilted>0</tilted></_>
    <_>
      <rects>
        <_>
          0 3 2 2 -1.</_>
        <_>
          0 3 1 1 2.</_>
        <_>
          1 4 1 1 2.</_></rects>
      <tilted>0</tilted></_>
    <_>
      <rects>
        <_>
          0 3 2 5 -1.</_>
        <_>
          1 3 1 5 2.</_></rects>
      <tilted>0</tilted></_>
    <_>
      <rects>
        <_>
          0 4 2 2 -1.</_>
        <_>
          0 4 1 1 2.</_>
        <_>
          1 5 1 1 2.</_></rects>
      <tilted>0</tilted></_>
    <_>
      <rects>
        <_>
          0 5 1 2 -1.</_>
        <_>
          0 6 1 1 2.</_></rects>
      <tilted>0</tilted></_>
    <_>
      <rects>
        <_>
          0 7 2 1 -1.</_>
        <_>
          1 7 1 1 2.</_></rects>
      <tilted>0</tilted></_>
    <_>
      <rects>
        <_>
          0 7 42 4 -1.</_>
        <_>
          21 7 21 4 2.</_></rects>
      <tilted>0</tilted></_>
    <_>
      <rects>
        <_>
          0 8 4 6 -1.</_>
        <_>
          0 10 4 2 3.</_></rects>
      <tilted>0</tilted></_>
    <_>
      <rects>
        <_>
          0 9 2 2 -1.</_>
        <_>
          0 9 1 1 2.</_>
        <_>
          1 10 1 1 2.</_></rects>
      <tilted>0</tilted></_>
    <_>
      <rects>
        <_>
          0 9 2 2 -1.</_>
        <_>
          0 10 2 1 2.</_></rects>
      <tilted>0</tilted></_>
    <_>
      <rects>
        <_>
          0 10 2 2 -1.</_>
        <_>
          0 10 1 1 2.</_>
        <_>
          1 11 1 1 2.</_></rects>
      <tilted>0</tilted></_>
    <_>
      <rects>
        <_>
          0 12 2 2 -1.</_>
        <_>
          0 12 1 1 2.</_>
        <_>
          1 13 1 1 2.</_></rects>
      <tilted>0</tilted></_>
    <_>
      <rects>
        <_>
          0 13 2 2 -1.</_>
        <_>
          0 13 1 1 2.</_>
        <_>
          1 14 1 1 2.</_></rects>
      <tilted>0</tilted></_>
    <_>
      <rects>
        <_>
          0 15 2 2 -1.</_>
        <_>
          0 15 1 1 2.</_>
        <_>
          1 16 1 1 2.</_></rects>
      <tilted>0</tilted></_>
    <_>
      <rects>
        <_>
          0 17 2 2 -1.</_>
        <_>
          0 17 1 1 2.</_>
        <_>
          1 18 1 1 2.</_></rects>
      <tilted>0</tilted></_>
    <_>
      <rects>
        <_>
          0 17 4 3 -1.</_>
        <_>
          0 18 4 1 3.</_></rects>
      <tilted>0</tilted></_>
    <_>
      <rects>
        <_>
          0 17 5 3 -1.</_>
        <_>
          0 18 5 1 3.</_></rects>
      <tilted>0</tilted></_>
    <_>
      <rects>
        <_>
          0 18 6 3 -1.</_>
        <_>
          3 18 3 3 2.</_></rects>
      <tilted>0</tilted></_>
    <_>
      <rects>
        <_>
          0 18 45 3 -1.</_>
        <_>
          0 19 45 1 3.</_></rects>
      <tilted>0</tilted></_>
    <_>
      <rects>
        <_>
          0 19 2 1 -1.</_>
        <_>
          1 19 1 1 2.</_></rects>
      <tilted>0</tilted></_>
    <_>
      <rects>
        <_>
          0 19 2 2 -1.</_>
        <_>
          0 19 1 1 2.</_>
        <_>
          1 20 1 1 2.</_></rects>
      <tilted>0</tilted></_>
    <_>
      <rects>
        <_>
          0 20 2 4 -1.</_>
        <_>
          0 20 1 2 2.</_>
        <_>
          1 22 1 2 2.</_></rects>
      <tilted>0</tilted></_>
    <_>
      <rects>
        <_>
          0 20 3 4 -1.</_>
        <_>
          0 22 3 2 2.</_></rects>
      <tilted>0</tilted></_>
    <_>
      <rects>
        <_>
          0 21 2 2 -1.</_>
        <_>
          0 21 1 1 2.</_>
        <_>
          1 22 1 1 2.</_></rects>
      <tilted>0</tilted></_>
    <_>
      <rects>
        <_>
          1 0 3 19 -1.</_>
        <_>
          2 0 1 19 3.</_></rects>
      <tilted>0</tilted></_>
    <_>
      <rects>
        <_>
          1 0 3 24 -1.</_>
        <_>
          2 0 1 24 3.</_></rects>
      <tilted>0</tilted></_>
    <_>
      <rects>
        <_>
          1 2 3 21 -1.</_>
        <_>
          2 2 1 21 3.</_></rects>
      <tilted>0</tilted></_>
    <_>
      <rects>
        <_>
          1 5 3 3 -1.</_>
        <_>
          2 5 1 3 3.</_></rects>
      <tilted>0</tilted></_>
    <_>
      <rects>
        <_>
          1 5 3 18 -1.</_>
        <_>
          2 5 1 18 3.</_></rects>
      <tilted>0</tilted></_>
    <_>
      <rects>
        <_>
          1 6 45 18 -1.</_>
        <_>
          16 6 15 18 3.</_></rects>
      <tilted>0</tilted></_>
    <_>
      <rects>
        <_>
          1 9 3 2 -1.</_>
        <_>
          2 9 1 2 3.</_></rects>
      <tilted>0</tilted></_>
    <_>
      <rects>
        <_>
          1 11 3 12 -1.</_>
        <_>
          2 11 1 12 3.</_></rects>
      <tilted>0</tilted></_>
    <_>
      <rects>
        <_>
          1 13 3 5 -1.</_>
        <_>
          2 13 1 5 3.</_></rects>
      <tilted>0</tilted></_>
    <_>
      <rects>
        <_>
          1 20 3 4 -1.</_>
        <_>
          2 20 1 4 3.</_></rects>
      <tilted>0</tilted></_>
    <_>
      <rects>
        <_>
          1 23 3 1 -1.</_>
        <_>
          2 23 1 1 3.</_></rects>
      <tilted>0</tilted></_>
    <_>
      <rects>
        <_>
          2 4 14 2 -1.</_>
        <_>
          2 4 7 1 2.</_>
        <_>
          9 5 7 1 2.</_></rects>
      <tilted>0</tilted></_>
    <_>
      <rects>
        <_>
          2 5 3 13 -1.</_>
        <_>
          3 5 1 13 3.</_></rects>
      <tilted>0</tilted></_>
    <_>
      <rects>
        <_>
          2 9 40 1 -1.</_>
        <_>
          22 9 20 1 2.</_></rects>
      <tilted>0</tilted></_>
    <_>
      <rects>
        <_>
          2 17 2 5 -1.</_>
        <_>
          3 17 1 5 2.</_></rects>
      <tilted>0</tilted></_>
    <_>
      <rects>
        <_>
          2 23 3 1 -1.</_>
        <_>
          3 23 1 1 3.</_></rects>
      <tilted>0</tilted></_>
    <_>
      <rects>
        <_>
          3 6 4 2 -1.</_>
        <_>
          5 6 2 2 2.</_></rects>
      <tilted>0</tilted></_>
    <_>
      <rects>
        <_>
          4 9 5 3 -1.</_>
        <_>
          4 10 5 1 3.</_></rects>
      <tilted>0</tilted></_>
    <_>
      <rects>
        <_>
          4 11 2 3 -1.</_>
        <_>
          5 11 1 3 2.</_></rects>
      <tilted>0</tilted></_>
    <_>
      <rects>
        <_>
          4 19 9 5 -1.</_>
        <_>
          7 19 3 5 3.</_></rects>
      <tilted>0</tilted></_>
    <_>
      <rects>
        <_>
          5 0 41 9 -1.</_>
        <_>
          5 3 41 3 3.</_></rects>
      <tilted>0</tilted></_>
    <_>
      <rects>
        <_>
          5 9 6 3 -1.</_>
        <_>
          5 10 6 1 3.</_></rects>
      <tilted>0</tilted></_>
    <_>
      <rects>
        <_>
          6 0 3 24 -1.</_>
        <_>
          7 0 1 24 3.</_></rects>
      <tilted>0</tilted></_>
    <_>
      <rects>
        <_>
          6 17 7 3 -1.</_>
        <_>
          6 18 7 1 3.</_></rects>
      <tilted>0</tilted></_>
    <_>
      <rects>
        <_>
          7 8 6 3 -1.</_>
        <_>
          9 8 2 3 3.</_></rects>
      <tilted>0</tilted></_>
    <_>
      <rects>
        <_>
          7 9 16 4 -1.</_>
        <_>
          7 9 8 2 2.</_>
        <_>
          15 11 8 2 2.</_></rects>
      <tilted>0</tilted></_>
    <_>
      <rects>
        <_>
          7 9 16 3 -1.</_>
        <_>
          7 10 16 1 3.</_></rects>
      <tilted>0</tilted></_>
    <_>
      <rects>
        <_>
          7 11 3 8 -1.</_>
        <_>
          8 11 1 8 3.</_></rects>
      <tilted>0</tilted></_>
    <_>
      <rects>
        <_>
          7 16 3 8 -1.</_>
        <_>
          8 16 1 8 3.</_></rects>
      <tilted>0</tilted></_>
    <_>
      <rects>
        <_>
          8 0 2 1 -1.</_>
        <_>
          9 0 1 1 2.</_></rects>
      <tilted>0</tilted></_>
    <_>
      <rects>
        <_>
          8 0 3 15 -1.</_>
        <_>
          9 0 1 15 3.</_></rects>
      <tilted>0</tilted></_>
    <_>
      <rects>
        <_>
          8 0 3 24 -1.</_>
        <_>
          9 0 1 24 3.</_></rects>
      <tilted>0</tilted></_>
    <_>
      <rects>
        <_>
          8 5 3 7 -1.</_>
        <_>
          9 5 1 7 3.</_></rects>
      <tilted>0</tilted></_>
    <_>
      <rects>
        <_>
          8 7 3 10 -1.</_>
        <_>
          9 7 1 10 3.</_></rects>
      <tilted>0</tilted></_>
    <_>
      <rects>
        <_>
          8 10 3 9 -1.</_>
        <_>
          9 10 1 9 3.</_></rects>
      <tilted>0</tilted></_>
    <_>
      <rects>
        <_>
          8 11 3 1 -1.</_>
        <_>
          9 11 1 1 3.</_></rects>
      <tilted>0</tilted></_>
    <_>
      <rects>
        <_>
          8 23 3 1 -1.</_>
        <_>
          9 23 1 1 3.</_></rects>
      <tilted>0</tilted></_>
    <_>
      <rects>
        <_>
          9 2 3 3 -1.</_>
        <_>
          9 3 3 1 3.</_></rects>
      <tilted>0</tilted></_>
    <_>
      <rects>
        <_>
          10 8 9 5 -1.</_>
        <_>
          13 8 3 5 3.</_></rects>
      <tilted>0</tilted></_>
    <_>
      <rects>
        <_>
          11 5 7 3 -1.</_>
        <_>
          11 6 7 1 3.</_></rects>
      <tilted>0</tilted></_>
    <_>
      <rects>
        <_>
          12 0 27 24 -1.</_>
        <_>
          21 0 9 24 3.</_></rects>
      <tilted>0</tilted></_>
    <_>
      <rects>
        <_>
          12 3 12 3 -1.</_>
        <_>
          16 3 4 3 3.</_></rects>
      <tilted>0</tilted></_>
    <_>
      <rects>
        <_>
          12 4 7 3 -1.</_>
        <_>
          12 5 7 1 3.</_></rects>
      <tilted>0</tilted></_>
    <_>
      <rects>
        <_>
          12 11 9 10 -1.</_>
        <_>
          15 11 3 10 3.</_></rects>
      <tilted>0</tilted></_>
    <_>
      <rects>
        <_>
          13 0 3 1 -1.</_>
        <_>
          14 0 1 1 3.</_></rects>
      <tilted>0</tilted></_>
    <_>
      <rects>
        <_>
          13 0 3 7 -1.</_>
        <_>
          14 0 1 7 3.</_></rects>
      <tilted>0</tilted></_>
    <_>
      <rects>
        <_>
          13 0 8 2 -1.</_>
        <_>
          13 1 8 1 2.</_></rects>
      <tilted>0</tilted></_>
    <_>
      <rects>
        <_>
          13 1 3 4 -1.</_>
        <_>
          14 1 1 4 3.</_></rects>
      <tilted>0</tilted></_>
    <_>
      <rects>
        <_>
          13 5 3 19 -1.</_>
        <_>
          14 5 1 19 3.</_></rects>
      <tilted>0</tilted></_>
    <_>
      <rects>
        <_>
          13 5 8 3 -1.</_>
        <_>
          13 6 8 1 3.</_></rects>
      <tilted>0</tilted></_>
    <_>
      <rects>
        <_>
          13 12 3 7 -1.</_>
        <_>
          14 12 1 7 3.</_></rects>
      <tilted>0</tilted></_>
    <_>
      <rects>
        <_>
          13 18 3 1 -1.</_>
        <_>
          14 18 1 1 3.</_></rects>
      <tilted>0</tilted></_>
    <_>
      <rects>
        <_>
          13 19 8 5 -1.</_>
        <_>
          17 19 4 5 2.</_></rects>
      <tilted>0</tilted></_>
    <_>
      <rects>
        <_>
          13 20 3 3 -1.</_>
        <_>
          14 20 1 3 3.</_></rects>
      <tilted>0</tilted></_>
    <_>
      <rects>
        <_>
          13 20 3 4 -1.</_>
        <_>
          14 20 1 4 3.</_></rects>
      <tilted>0</tilted></_>
    <_>
      <rects>
        <_>
          13 21 3 2 -1.</_>
        <_>
          14 21 1 2 3.</_></rects>
      <tilted>0</tilted></_>
    <_>
      <rects>
        <_>
          13 23 3 1 -1.</_>
        <_>
          14 23 1 1 3.</_></rects>
      <tilted>0</tilted></_>
    <_>
      <rects>
        <_>
          15 0 3 21 -1.</_>
        <_>
          16 0 1 21 3.</_></rects>
      <tilted>0</tilted></_>
    <_>
      <rects>
        <_>
          15 0 6 2 -1.</_>
        <_>
          17 0 2 2 3.</_></rects>
      <tilted>0</tilted></_>
    <_>
      <rects>
        <_>
          15 3 3 20 -1.</_>
        <_>
          16 3 1 20 3.</_></rects>
      <tilted>0</tilted></_>
    <_>
      <rects>
        <_>
          15 4 12 7 -1.</_>
        <_>
          19 4 4 7 3.</_></rects>
      <tilted>0</tilted></_>
    <_>
      <rects>
        <_>
          15 16 3 7 -1.</_>
        <_>
          16 16 1 7 3.</_></rects>
      <tilted>0</tilted></_>
    <_>
      <rects>
        <_>
          15 20 3 3 -1.</_>
        <_>
          16 20 1 3 3.</_></rects>
      <tilted>0</tilted></_>
    <_>
      <rects>
        <_>
          16 18 6 2 -1.</_>
        <_>
          16 18 3 1 2.</_>
        <_>
          19 19 3 1 2.</_></rects>
      <tilted>0</tilted></_>
    <_>
      <rects>
        <_>
          17 6 6 16 -1.</_>
        <_>
          19 6 2 16 3.</_></rects>
      <tilted>0</tilted></_>
    <_>
      <rects>
        <_>
          17 6 6 1 -1.</_>
        <_>
          20 6 3 1 2.</_></rects>
      <tilted>0</tilted></_>
    <_>
      <rects>
        <_>
          17 7 6 9 -1.</_>
        <_>
          19 7 2 9 3.</_></rects>
      <tilted>0</tilted></_>
    <_>
      <rects>
        <_>
          17 17 5 3 -1.</_>
        <_>
          17 18 5 1 3.</_></rects>
      <tilted>0</tilted></_>
    <_>
      <rects>
        <_>
          17 17 8 3 -1.</_>
        <_>
          17 18 8 1 3.</_></rects>
      <tilted>0</tilted></_>
    <_>
      <rects>
        <_>
          17 18 6 2 -1.</_>
        <_>
          17 18 3 1 2.</_>
        <_>
          20 19 3 1 2.</_></rects>
      <tilted>0</tilted></_>
    <_>
      <rects>
        <_>
          18 1 3 23 -1.</_>
        <_>
          19 1 1 23 3.</_></rects>
      <tilted>0</tilted></_>
    <_>
      <rects>
        <_>
          18 4 6 10 -1.</_>
        <_>
          20 4 2 10 3.</_></rects>
      <tilted>0</tilted></_>
    <_>
      <rects>
        <_>
          18 22 4 2 -1.</_>
        <_>
          20 22 2 2 2.</_></rects>
      <tilted>0</tilted></_>
    <_>
      <rects>
        <_>
          18 22 6 2 -1.</_>
        <_>
          20 22 2 2 3.</_></rects>
      <tilted>0</tilted></_>
    <_>
      <rects>
        <_>
          19 0 3 2 -1.</_>
        <_>
          20 0 1 2 3.</_></rects>
      <tilted>0</tilted></_>
    <_>
      <rects>
        <_>
          19 8 4 8 -1.</_>
        <_>
          21 8 2 8 2.</_></rects>
      <tilted>0</tilted></_>
    <_>
      <rects>
        <_>
          19 10 3 5 -1.</_>
        <_>
          20 10 1 5 3.</_></rects>
      <tilted>0</tilted></_>
    <_>
      <rects>
        <_>
          19 17 3 4 -1.</_>
        <_>
          20 17 1 4 3.</_></rects>
      <tilted>0</tilted></_>
    <_>
      <rects>
        <_>
          19 19 3 2 -1.</_>
        <_>
          20 19 1 2 3.</_></rects>
      <tilted>0</tilted></_>
    <_>
      <rects>
        <_>
          20 0 3 1 -1.</_>
        <_>
          21 0 1 1 3.</_></rects>
      <tilted>0</tilted></_>
    <_>
      <rects>
        <_>
          20 0 3 14 -1.</_>
        <_>
          21 0 1 14 3.</_></rects>
      <tilted>0</tilted></_>
    <_>
      <rects>
        <_>
          20 0 3 23 -1.</_>
        <_>
          21 0 1 23 3.</_></rects>
      <tilted>0</tilted></_>
    <_>
      <rects>
        <_>
          20 0 3 24 -1.</_>
        <_>
          21 0 1 24 3.</_></rects>
      <tilted>0</tilted></_>
    <_>
      <rects>
        <_>
          20 1 3 14 -1.</_>
        <_>
          21 1 1 14 3.</_></rects>
      <tilted>0</tilted></_>
    <_>
      <rects>
        <_>
          20 1 3 22 -1.</_>
        <_>
          21 1 1 22 3.</_></rects>
      <tilted>0</tilted></_>
    <_>
      <rects>
        <_>
          20 8 3 11 -1.</_>
        <_>
          21 8 1 11 3.</_></rects>
      <tilted>0</tilted></_>
    <_>
      <rects>
        <_>
          20 10 3 14 -1.</_>
        <_>
          21 10 1 14 3.</_></rects>
      <tilted>0</tilted></_>
    <_>
      <rects>
        <_>
          20 12 3 10 -1.</_>
        <_>
          21 12 1 10 3.</_></rects>
      <tilted>0</tilted></_>
    <_>
      <rects>
        <_>
          20 13 3 4 -1.</_>
        <_>
          21 13 1 4 3.</_></rects>
      <tilted>0</tilted></_>
    <_>
      <rects>
        <_>
          20 13 3 11 -1.</_>
        <_>
          21 13 1 11 3.</_></rects>
      <tilted>0</tilted></_>
    <_>
      <rects>
        <_>
          20 15 3 2 -1.</_>
        <_>
          21 15 1 2 3.</_></rects>
      <tilted>0</tilted></_>
    <_>
      <rects>
        <_>
          20 16 3 8 -1.</_>
        <_>
          21 16 1 8 3.</_></rects>
      <tilted>0</tilted></_>
    <_>
      <rects>
        <_>
          20 20 3 2 -1.</_>
        <_>
          21 20 1 2 3.</_></rects>
      <tilted>0</tilted></_>
    <_>
      <rects>
        <_>
          20 23 3 1 -1.</_>
        <_>
          21 23 1 1 3.</_></rects>
      <tilted>0</tilted></_>
    <_>
      <rects>
        <_>
          21 5 26 16 -1.</_>
        <_>
          21 5 13 8 2.</_>
        <_>
          34 13 13 8 2.</_></rects>
      <tilted>0</tilted></_>
    <_>
      <rects>
        <_>
          22 17 21 3 -1.</_>
        <_>
          22 18 21 1 3.</_></rects>
      <tilted>0</tilted></_>
    <_>
      <rects>
        <_>
          24 8 6 9 -1.</_>
        <_>
          26 8 2 9 3.</_></rects>
      <tilted>0</tilted></_>
    <_>
      <rects>
        <_>
          24 9 2 8 -1.</_>
        <_>
          24 13 2 4 2.</_></rects>
      <tilted>0</tilted></_>
    <_>
      <rects>
        <_>
          25 0 3 1 -1.</_>
        <_>
          26 0 1 1 3.</_></rects>
      <tilted>0</tilted></_>
    <_>
      <rects>
        <_>
          25 0 3 19 -1.</_>
        <_>
          26 0 1 19 3.</_></rects>
      <tilted>0</tilted></_>
    <_>
      <rects>
        <_>
          25 0 3 24 -1.</_>
        <_>
          26 0 1 24 3.</_></rects>
      <tilted>0</tilted></_>
    <_>
      <rects>
        <_>
          25 3 3 19 -1.</_>
        <_>
          26 3 1 19 3.</_></rects>
      <tilted>0</tilted></_>
    <_>
      <rects>
        <_>
          25 4 3 16 -1.</_>
        <_>
          26 4 1 16 3.</_></rects>
      <tilted>0</tilted></_>
    <_>
      <rects>
        <_>
          25 13 3 3 -1.</_>
        <_>
          26 13 1 3 3.</_></rects>
      <tilted>0</tilted></_>
    <_>
      <rects>
        <_>
          25 23 3 1 -1.</_>
        <_>
          26 23 1 1 3.</_></rects>
      <tilted>0</tilted></_>
    <_>
      <rects>
        <_>
          26 9 22 3 -1.</_>
        <_>
          26 10 22 1 3.</_></rects>
      <tilted>0</tilted></_>
    <_>
      <rects>
        <_>
          26 17 15 3 -1.</_>
        <_>
          26 18 15 1 3.</_></rects>
      <tilted>0</tilted></_>
    <_>
      <rects>
        <_>
          27 5 3 16 -1.</_>
        <_>
          28 5 1 16 3.</_></rects>
      <tilted>0</tilted></_>
    <_>
      <rects>
        <_>
          27 21 16 3 -1.</_>
        <_>
          27 22 16 1 3.</_></rects>
      <tilted>0</tilted></_>
    <_>
      <rects>
        <_>
          28 17 5 3 -1.</_>
        <_>
          28 18 5 1 3.</_></rects>
      <tilted>0</tilted></_>
    <_>
      <rects>
        <_>
          28 17 11 3 -1.</_>
        <_>
          28 18 11 1 3.</_></rects>
      <tilted>0</tilted></_>
    <_>
      <rects>
        <_>
          29 0 18 2 -1.</_>
        <_>
          29 0 9 1 2.</_>
        <_>
          38 1 9 1 2.</_></rects>
      <tilted>0</tilted></_>
    <_>
      <rects>
        <_>
          29 11 17 3 -1.</_>
        <_>
          29 12 17 1 3.</_></rects>
      <tilted>0</tilted></_>
    <_>
      <rects>
        <_>
          30 0 3 24 -1.</_>
        <_>
          31 0 1 24 3.</_></rects>
      <tilted>0</tilted></_>
    <_>
      <rects>
        <_>
          31 10 3 4 -1.</_>
        <_>
          32 10 1 4 3.</_></rects>
      <tilted>0</tilted></_>
    <_>
      <rects>
        <_>
          32 0 1 2 -1.</_>
        <_>
          32 1 1 1 2.</_></rects>
      <tilted>0</tilted></_>
    <_>
      <rects>
        <_>
          32 0 3 2 -1.</_>
        <_>
          33 0 1 2 3.</_></rects>
      <tilted>0</tilted></_>
    <_>
      <rects>
        <_>
          32 0 3 19 -1.</_>
        <_>
          33 0 1 19 3.</_></rects>
      <tilted>0</tilted></_>
    <_>
      <rects>
        <_>
          32 0 3 24 -1.</_>
        <_>
          33 0 1 24 3.</_></rects>
      <tilted>0</tilted></_>
    <_>
      <rects>
        <_>
          32 1 3 21 -1.</_>
        <_>
          33 1 1 21 3.</_></rects>
      <tilted>0</tilted></_>
    <_>
      <rects>
        <_>
          32 5 3 19 -1.</_>
        <_>
          33 5 1 19 3.</_></rects>
      <tilted>0</tilted></_>
    <_>
      <rects>
        <_>
          32 12 3 12 -1.</_>
        <_>
          33 12 1 12 3.</_></rects>
      <tilted>0</tilted></_>
    <_>
      <rects>
        <_>
          32 12 9 5 -1.</_>
        <_>
          35 12 3 5 3.</_></rects>
      <tilted>0</tilted></_>
    <_>
      <rects>
        <_>
          32 13 3 11 -1.</_>
        <_>
          33 13 1 11 3.</_></rects>
      <tilted>0</tilted></_>
    <_>
      <rects>
        <_>
          32 15 3 2 -1.</_>
        <_>
          33 15 1 2 3.</_></rects>
      <tilted>0</tilted></_>
    <_>
      <rects>
        <_>
          32 16 3 5 -1.</_>
        <_>
          33 16 1 5 3.</_></rects>
      <tilted>0</tilted></_>
    <_>
      <rects>
        <_>
          32 23 3 1 -1.</_>
        <_>
          33 23 1 1 3.</_></rects>
      <tilted>0</tilted></_>
    <_>
      <rects>
        <_>
          33 5 1 2 -1.</_>
        <_>
          33 6 1 1 2.</_></rects>
      <tilted>0</tilted></_>
    <_>
      <rects>
        <_>
          33 11 8 3 -1.</_>
        <_>
          33 12 8 1 3.</_></rects>
      <tilted>0</tilted></_>
    <_>
      <rects>
        <_>
          33 17 6 3 -1.</_>
        <_>
          33 18 6 1 3.</_></rects>
      <tilted>0</tilted></_>
    <_>
      <rects>
        <_>
          33 22 9 2 -1.</_>
        <_>
          36 22 3 2 3.</_></rects>
      <tilted>0</tilted></_>
    <_>
      <rects>
        <_>
          34 18 6 5 -1.</_>
        <_>
          36 18 2 5 3.</_></rects>
      <tilted>0</tilted></_>
    <_>
      <rects>
        <_>
          36 9 12 3 -1.</_>
        <_>
          36 10 12 1 3.</_></rects>
      <tilted>0</tilted></_>
    <_>
      <rects>
        <_>
          36 22 4 2 -1.</_>
        <_>
          38 22 2 2 2.</_></rects>
      <tilted>0</tilted></_>
    <_>
      <rects>
        <_>
          37 0 3 1 -1.</_>
        <_>
          38 0 1 1 3.</_></rects>
      <tilted>0</tilted></_>
    <_>
      <rects>
        <_>
          37 0 3 22 -1.</_>
        <_>
          38 0 1 22 3.</_></rects>
      <tilted>0</tilted></_>
    <_>
      <rects>
        <_>
          37 0 4 1 -1.</_>
        <_>
          39 0 2 1 2.</_></rects>
      <tilted>0</tilted></_>
    <_>
      <rects>
        <_>
          37 3 6 9 -1.</_>
        <_>
          39 3 2 9 3.</_></rects>
      <tilted>0</tilted></_>
    <_>
      <rects>
        <_>
          37 4 3 8 -1.</_>
        <_>
          38 4 1 8 3.</_></rects>
      <tilted>0</tilted></_>
    <_>
      <rects>
        <_>
          37 5 3 19 -1.</_>
        <_>
          38 5 1 19 3.</_></rects>
      <tilted>0</tilted></_>
    <_>
      <rects>
        <_>
          37 6 3 18 -1.</_>
        <_>
          38 6 1 18 3.</_></rects>
      <tilted>0</tilted></_>
    <_>
      <rects>
        <_>
          37 7 3 17 -1.</_>
        <_>
          38 7 1 17 3.</_></rects>
      <tilted>0</tilted></_>
    <_>
      <rects>
        <_>
          37 9 9 6 -1.</_>
        <_>
          37 11 9 2 3.</_></rects>
      <tilted>0</tilted></_>
    <_>
      <rects>
        <_>
          37 17 4 3 -1.</_>
        <_>
          37 18 4 1 3.</_></rects>
      <tilted>0</tilted></_>
    <_>
      <rects>
        <_>
          37 17 8 3 -1.</_>
        <_>
          37 18 8 1 3.</_></rects>
      <tilted>0</tilted></_>
    <_>
      <rects>
        <_>
          37 23 3 1 -1.</_>
        <_>
          38 23 1 1 3.</_></rects>
      <tilted>0</tilted></_>
    <_>
      <rects>
        <_>
          38 2 8 8 -1.</_>
        <_>
          42 2 4 8 2.</_></rects>
      <tilted>0</tilted></_>
    <_>
      <rects>
        <_>
          38 5 3 2 -1.</_>
        <_>
          39 5 1 2 3.</_></rects>
      <tilted>0</tilted></_>
    <_>
      <rects>
        <_>
          38 6 2 5 -1.</_>
        <_>
          39 6 1 5 2.</_></rects>
      <tilted>0</tilted></_>
    <_>
      <rects>
        <_>
          38 6 3 18 -1.</_>
        <_>
          39 6 1 18 3.</_></rects>
      <tilted>0</tilted></_>
    <_>
      <rects>
        <_>
          38 17 3 3 -1.</_>
        <_>
          38 18 3 1 3.</_></rects>
      <tilted>0</tilted></_>
    <_>
      <rects>
        <_>
          38 17 7 3 -1.</_>
        <_>
          38 18 7 1 3.</_></rects>
      <tilted>0</tilted></_>
    <_>
      <rects>
        <_>
          38 18 8 3 -1.</_>
        <_>
          38 19 8 1 3.</_></rects>
      <tilted>0</tilted></_>
    <_>
      <rects>
        <_>
          38 22 3 2 -1.</_>
        <_>
          39 22 1 2 3.</_></rects>
      <tilted>0</tilted></_>
    <_>
      <rects>
        <_>
          39 3 3 12 -1.</_>
        <_>
          40 3 1 12 3.</_></rects>
      <tilted>0</tilted></_>
    <_>
      <rects>
        <_>
          39 4 3 3 -1.</_>
        <_>
          39 5 3 1 3.</_></rects>
      <tilted>0</tilted></_>
    <_>
      <rects>
        <_>
          39 4 4 3 -1.</_>
        <_>
          39 5 4 1 3.</_></rects>
      <tilted>0</tilted></_>
    <_>
      <rects>
        <_>
          39 9 9 3 -1.</_>
        <_>
          39 10 9 1 3.</_></rects>
      <tilted>0</tilted></_>
    <_>
      <rects>
        <_>
          39 16 3 3 -1.</_>
        <_>
          40 16 1 3 3.</_></rects>
      <tilted>0</tilted></_>
    <_>
      <rects>
        <_>
          41 17 5 3 -1.</_>
        <_>
          41 18 5 1 3.</_></rects>
      <tilted>0</tilted></_>
    <_>
      <rects>
        <_>
          41 17 7 3 -1.</_>
        <_>
          41 18 7 1 3.</_></rects>
      <tilted>0</tilted></_>
    <_>
      <rects>
        <_>
          42 3 3 7 -1.</_>
        <_>
          43 3 1 7 3.</_></rects>
      <tilted>0</tilted></_>
    <_>
      <rects>
        <_>
          42 3 3 17 -1.</_>
        <_>
          43 3 1 17 3.</_></rects>
      <tilted>0</tilted></_>
    <_>
      <rects>
        <_>
          42 15 3 9 -1.</_>
        <_>
          43 15 1 9 3.</_></rects>
      <tilted>0</tilted></_>
    <_>
      <rects>
        <_>
          42 16 3 8 -1.</_>
        <_>
          43 16 1 8 3.</_></rects>
      <tilted>0</tilted></_>
    <_>
      <rects>
        <_>
          42 18 6 2 -1.</_>
        <_>
          42 18 3 1 2.</_>
        <_>
          45 19 3 1 2.</_></rects>
      <tilted>0</tilted></_>
    <_>
      <rects>
        <_>
          43 5 3 19 -1.</_>
        <_>
          44 5 1 19 3.</_></rects>
      <tilted>0</tilted></_>
    <_>
      <rects>
        <_>
          43 17 4 4 -1.</_>
        <_>
          43 17 2 2 2.</_>
        <_>
          45 19 2 2 2.</_></rects>
      <tilted>0</tilted></_>
    <_>
      <rects>
        <_>
          44 0 3 1 -1.</_>
        <_>
          45 0 1 1 3.</_></rects>
      <tilted>0</tilted></_>
    <_>
      <rects>
        <_>
          44 0 3 11 -1.</_>
        <_>
          45 0 1 11 3.</_></rects>
      <tilted>0</tilted></_>
    <_>
      <rects>
        <_>
          44 0 3 19 -1.</_>
        <_>
          45 0 1 19 3.</_></rects>
      <tilted>0</tilted></_>
    <_>
      <rects>
        <_>
          44 0 3 20 -1.</_>
        <_>
          45 0 1 20 3.</_></rects>
      <tilted>0</tilted></_>
    <_>
      <rects>
        <_>
          44 11 3 3 -1.</_>
        <_>
          45 11 1 3 3.</_></rects>
      <tilted>0</tilted></_>
    <_>
      <rects>
        <_>
          44 11 3 13 -1.</_>
        <_>
          45 11 1 13 3.</_></rects>
      <tilted>0</tilted></_>
    <_>
      <rects>
        <_>
          44 13 3 4 -1.</_>
        <_>
          45 13 1 4 3.</_></rects>
      <tilted>0</tilted></_>
    <_>
      <rects>
        <_>
          44 23 3 1 -1.</_>
        <_>
          45 23 1 1 3.</_></rects>
      <tilted>0</tilted></_>
    <_>
      <rects>
        <_>
          45 16 2 6 -1.</_>
        <_>
          45 16 1 3 2.</_>
        <_>
          46 19 1 3 2.</_></rects>
      <tilted>0</tilted></_>
    <_>
      <rects>
        <_>
          46 0 2 1 -1.</_>
        <_>
          47 0 1 1 2.</_></rects>
      <tilted>0</tilted></_>
    <_>
      <rects>
        <_>
          46 0 2 2 -1.</_>
        <_>
          47 0 1 2 2.</_></rects>
      <tilted>0</tilted></_>
    <_>
      <rects>
        <_>
          46 0 2 10 -1.</_>
        <_>
          47 0 1 10 2.</_></rects>
      <tilted>0</tilted></_>
    <_>
      <rects>
        <_>
          46 1 2 1 -1.</_>
        <_>
          47 1 1 1 2.</_></rects>
      <tilted>0</tilted></_>
    <_>
      <rects>
        <_>
          46 1 2 2 -1.</_>
        <_>
          46 1 1 1 2.</_>
        <_>
          47 2 1 1 2.</_></rects>
      <tilted>0</tilted></_>
    <_>
      <rects>
        <_>
          46 3 2 2 -1.</_>
        <_>
          46 3 1 1 2.</_>
        <_>
          47 4 1 1 2.</_></rects>
      <tilted>0</tilted></_>
    <_>
      <rects>
        <_>
          46 4 2 1 -1.</_>
        <_>
          47 4 1 1 2.</_></rects>
      <tilted>0</tilted></_>
    <_>
      <rects>
        <_>
          46 4 2 18 -1.</_>
        <_>
          46 4 1 9 2.</_>
        <_>
          47 13 1 9 2.</_></rects>
      <tilted>0</tilted></_>
    <_>
      <rects>
        <_>
          46 6 2 1 -1.</_>
        <_>
          47 6 1 1 2.</_></rects>
      <tilted>0</tilted></_>
    <_>
      <rects>
        <_>
          46 7 2 1 -1.</_>
        <_>
          47 7 1 1 2.</_></rects>
      <tilted>0</tilted></_>
    <_>
      <rects>
        <_>
          46 7 2 2 -1.</_>
        <_>
          46 7 1 1 2.</_>
        <_>
          47 8 1 1 2.</_></rects>
      <tilted>0</tilted></_>
    <_>
      <rects>
        <_>
          46 9 2 2 -1.</_>
        <_>
          46 9 1 1 2.</_>
        <_>
          47 10 1 1 2.</_></rects>
      <tilted>0</tilted></_>
    <_>
      <rects>
        <_>
          46 10 2 1 -1.</_>
        <_>
          47 10 1 1 2.</_></rects>
      <tilted>0</tilted></_>
    <_>
      <rects>
        <_>
          46 12 2 1 -1.</_>
        <_>
          47 12 1 1 2.</_></rects>
      <tilted>0</tilted></_>
    <_>
      <rects>
        <_>
          46 12 2 10 -1.</_>
        <_>
          46 12 1 5 2.</_>
        <_>
          47 17 1 5 2.</_></rects>
      <tilted>0</tilted></_>
    <_>
      <rects>
        <_>
          46 13 2 1 -1.</_>
        <_>
          47 13 1 1 2.</_></rects>
      <tilted>0</tilted></_>
    <_>
      <rects>
        <_>
          46 15 2 1 -1.</_>
        <_>
          47 15 1 1 2.</_></rects>
      <tilted>0</tilted></_>
    <_>
      <rects>
        <_>
          46 16 2 1 -1.</_>
        <_>
          47 16 1 1 2.</_></rects>
      <tilted>0</tilted></_>
    <_>
      <rects>
        <_>
          46 16 2 2 -1.</_>
        <_>
          46 16 1 1 2.</_>
        <_>
          47 17 1 1 2.</_></rects>
      <tilted>0</tilted></_>
    <_>
      <rects>
        <_>
          46 17 2 1 -1.</_>
        <_>
          47 17 1 1 2.</_></rects>
      <tilted>0</tilted></_>
    <_>
      <rects>
        <_>
          46 17 2 3 -1.</_>
        <_>
          46 18 2 1 3.</_></rects>
      <tilted>0</tilted></_>
    <_>
      <rects>
        <_>
          46 19 2 2 -1.</_>
        <_>
          46 19 1 1 2.</_>
        <_>
          47 20 1 1 2.</_></rects>
      <tilted>0</tilted></_>
    <_>
      <rects>
        <_>
          46 22 2 1 -1.</_>
        <_>
          47 22 1 1 2.</_></rects>
      <tilted>0</tilted></_>
    <_>
      <rects>
        <_>
          46 22 2 2 -1.</_>
        <_>
          46 22 1 1 2.</_>
        <_>
          47 23 1 1 2.</_></rects>
      <tilted>0</tilted></_>
    <_>
      <rects>
        <_>
          46 23 2 1 -1.</_>
        <_>
          47 23 1 1 2.</_></rects>
      <tilted>0</tilted></_>
    <_>
      <rects>
        <_>
          47 18 1 2 -1.</_>
        <_>
          47 19 1 1 2.</_></rects>
      <tilted>0</tilted></_></features></cascade>
</opencv_storage>
